digraph Tree {
node [shape=box, style="filled", color="black"] ;
0 [label="trip_km <= 1174.821\nmse = 806.078\nsamples = 967465\nvalue = 4.594", fillcolor="#ffffff"] ;
1 [label="trip_km <= 233.355\nmse = 150.26\nsamples = 967359\nvalue = 4.334", fillcolor="#ffffff"] ;
0 -> 1 [labeldistance=2.5, labelangle=45, headlabel="True"] ;
2 [label="trip_km <= 13.784\nmse = 56.22\nsamples = 966998\nvalue = 4.165", fillcolor="#ffffff"] ;
1 -> 2 ;
3 [label="trip_km <= 4.289\nmse = 7.108\nsamples = 886999\nvalue = 2.258", fillcolor="#ffffff"] ;
2 -> 3 ;
4 [label="trip_km <= 1.392\nmse = 1.38\nsamples = 742647\nvalue = 1.275", fillcolor="#ffffff"] ;
3 -> 4 ;
5 [label="mse = 0.229\nsamples = 417150\nvalue = 0.395", fillcolor="#ffffff"] ;
4 -> 5 ;
6 [label="mse = 0.592\nsamples = 325497\nvalue = 2.402", fillcolor="#ffffff"] ;
4 -> 6 ;
7 [label="trip_km <= 8.087\nmse = 6.0\nsamples = 144352\nvalue = 7.318", fillcolor="#ffffff"] ;
3 -> 7 ;
8 [label="mse = 1.2\nsamples = 97142\nvalue = 5.856", fillcolor="#ffffff"] ;
7 -> 8 ;
9 [label="mse = 2.427\nsamples = 47210\nvalue = 10.327", fillcolor="#fffffe"] ;
7 -> 9 ;
10 [label="trip_km <= 89.801\nmse = 113.841\nsamples = 79999\nvalue = 25.298", fillcolor="#fffefe"] ;
2 -> 10 ;
11 [label="trip_km <= 24.196\nmse = 40.23\nsamples = 79679\nvalue = 24.777", fillcolor="#fffefe"] ;
10 -> 11 ;
12 [label="mse = 9.365\nsamples = 35164\nvalue = 19.37", fillcolor="#fffefe"] ;
11 -> 12 ;
13 [label="mse = 23.268\nsamples = 44515\nvalue = 29.049", fillcolor="#fffefd"] ;
11 -> 13 ;
14 [label="trip_km <= 153.773\nmse = 1542.441\nsamples = 320\nvalue = 155.04", fillcolor="#fef9f6"] ;
10 -> 14 ;
15 [label="mse = 308.054\nsamples = 156\nvalue = 120.564", fillcolor="#fefaf8"] ;
14 -> 15 ;
16 [label="mse = 510.526\nsamples = 164\nvalue = 187.834", fillcolor="#fef8f4"] ;
14 -> 16 ;
17 [label="trip_km <= 587.732\nmse = 46296.987\nsamples = 361\nvalue = 457.85", fillcolor="#fbeee4"] ;
1 -> 17 ;
18 [label="trip_km <= 378.196\nmse = 10038.665\nsamples = 285\nvalue = 363.907", fillcolor="#fcf1e9"] ;
17 -> 18 ;
19 [label="trip_km <= 296.843\nmse = 1598.488\nsamples = 171\nvalue = 291.709", fillcolor="#fdf4ee"] ;
18 -> 19 ;
20 [label="mse = 298.463\nsamples = 98\nvalue = 261.794", fillcolor="#fdf5ef"] ;
19 -> 20 ;
21 [label="mse = 529.558\nsamples = 73\nvalue = 331.869", fillcolor="#fcf2eb"] ;
19 -> 21 ;
22 [label="trip_km <= 474.757\nmse = 3152.172\nsamples = 114\nvalue = 472.203", fillcolor="#fbede3"] ;
18 -> 22 ;
23 [label="mse = 637.706\nsamples = 64\nvalue = 429.207", fillcolor="#fcefe5"] ;
22 -> 23 ;
24 [label="mse = 975.648\nsamples = 50\nvalue = 527.237", fillcolor="#fbebdf"] ;
22 -> 24 ;
25 [label="trip_km <= 844.906\nmse = 25064.135\nsamples = 76\nvalue = 810.137", fillcolor="#f9e0cf"] ;
17 -> 25 ;
26 [label="trip_km <= 683.971\nmse = 4335.029\nsamples = 46\nvalue = 696.181", fillcolor="#fae4d5"] ;
25 -> 26 ;
27 [label="mse = 675.475\nsamples = 18\nvalue = 626.75", fillcolor="#fae7da"] ;
26 -> 27 ;
28 [label="mse = 1596.368\nsamples = 28\nvalue = 740.816", fillcolor="#f9e3d3"] ;
26 -> 28 ;
29 [label="trip_km <= 1022.094\nmse = 6405.318\nsamples = 30\nvalue = 984.87", fillcolor="#f7d9c4"] ;
25 -> 29 ;
30 [label="mse = 1895.912\nsamples = 22\nvalue = 943.858", fillcolor="#f8dbc7"] ;
29 -> 30 ;
31 [label="mse = 1460.778\nsamples = 8\nvalue = 1097.653", fillcolor="#f6d5bd"] ;
29 -> 31 ;
32 [label="trip_km <= 2373.782\nmse = 365570.056\nsamples = 106\nvalue = 2375.17", fillcolor="#eca571"] ;
0 -> 32 [labeldistance=2.5, labelangle=-45, headlabel="False"] ;
33 [label="trip_km <= 1657.624\nmse = 144636.897\nsamples = 50\nvalue = 1861.734", fillcolor="#f0b890"] ;
32 -> 33 ;
34 [label="mse = 14638.527\nsamples = 14\nvalue = 1316.374", fillcolor="#f5cdb0"] ;
33 -> 34 ;
35 [label="trip_km <= 2035.82\nmse = 34549.763\nsamples = 36\nvalue = 2073.819", fillcolor="#efb083"] ;
33 -> 35 ;
36 [label="mse = 8128.579\nsamples = 13\nvalue = 1850.746", fillcolor="#f0b990"] ;
35 -> 36 ;
37 [label="trip_km <= 2196.755\nmse = 5460.028\nsamples = 23\nvalue = 2199.903", fillcolor="#eeab7b"] ;
35 -> 37 ;
38 [label="mse = 1429.844\nsamples = 11\nvalue = 2133.112", fillcolor="#eeae7f"] ;
37 -> 38 ;
39 [label="mse = 1316.578\nsamples = 12\nvalue = 2261.128", fillcolor="#eda978"] ;
37 -> 39 ;
40 [label="fare <= 45.375\nmse = 117306.638\nsamples = 56\nvalue = 2833.595", fillcolor="#e99355"] ;
32 -> 40 ;
41 [label="trip_km <= 2679.558\nmse = 15746.517\nsamples = 47\nvalue = 2742.733", fillcolor="#e9975b"] ;
40 -> 41 ;
42 [label="mse = 3921.372\nsamples = 11\nvalue = 2548.616", fillcolor="#eb9e66"] ;
41 -> 42 ;
43 [label="trip_km <= 2824.399\nmse = 4327.838\nsamples = 36\nvalue = 2802.047", fillcolor="#e99457"] ;
41 -> 43 ;
44 [label="mse = 1071.968\nsamples = 24\nvalue = 2762.707", fillcolor="#e9965a"] ;
43 -> 44 ;
45 [label="mse = 1553.993\nsamples = 12\nvalue = 2880.726", fillcolor="#e89153"] ;
43 -> 45 ;
46 [label="mse = 379410.879\nsamples = 9\nvalue = 3308.096", fillcolor="#e58139"] ;
40 -> 46 ;
}